/*
Copyright 2023 Siavash Barqi Janiar

   Licensed under the Apache License, Version 2.0 (the "License");
   you may not use this file except in compliance with the License.
   You may obtain a copy of the License at

     http://www.apache.org/licenses/LICENSE-2.0

   Unless required by applicable law or agreed to in writing, software
   distributed under the License is distributed on an "AS IS" BASIS,
   WITHOUT WARRANTIES OR CONDITIONS OF ANY KIND, either express or implied.
   See the License for the specific language governing permissions and
   limitations under the License.
*/

digraph Tree {
node [shape=box, style="filled, rounded", color="black", fontname=helvetica] ;
edge [fontname=helvetica] ;
0 [label="node #0\nCh. 5 Successful Tx <= 0.5\ngini = 0.688\nsamples = 100.0%\nvalue = [0.323, 0.317, 0.004, 0.005, 0.326, 0.005, 0.005, 0.007\n0.007]", fillcolor="#feffff"] ;
1 [label="node #1\nCh. 2 Disrupted/Jammed <= 0.5\ngini = 0.594\nsamples = 71.0%\nvalue = [0.454, 0.442, 0.006, 0.007, 0.067, 0.001, 0.007, 0.007\n0.009]", fillcolor="#fefcfb"] ;
0 -> 1 [labeldistance=2.5, labelangle=45, headlabel="True"] ;
2 [label="node #2\nCh. 5 Idle <= 0.5\ngini = 0.295\nsamples = 37.0%\nvalue = [0.036, 0.833, 0.005, 0.003, 0.096, 0.0, 0.011, 0.003\n0.014]", fillcolor="#deea5d"] ;
1 -> 2 ;
3 [label="node #3\nCh. 1 Successful Tx <= 0.5\ngini = 0.144\nsamples = 33.2%\nvalue = [0.036, 0.924, 0.003, 0.0, 0.006, 0.0, 0.012, 0.003\n0.015]", fillcolor="#dae749"] ;
2 -> 3 ;
4 [label="node #4\nCh. 7 Disrupted/Idle <= 0.5\ngini = 0.091\nsamples = 32.2%\nvalue = [0.006, 0.953, 0.003, 0.0, 0.006, 0.0, 0.013, 0.003\n0.016]", fillcolor="#d9e642"] ;
3 -> 4 ;
5 [label="node #5\nCh. 6 Jammed <= 0.5\ngini = 0.611\nsamples = 1.2%\nvalue = [0.083, 0.583, 0.0, 0.0, 0.083, 0.0, 0.167, 0.0, 0.083]", fillcolor="#ebf29c"] ;
4 -> 5 ;
6 [label="node #6\nCh. 5 Disrupted/Idle <= 0.5\ngini = 0.48\nsamples = 1.0%\nvalue = [0.0, 0.7, 0.0, 0.0, 0.1, 0.0, 0.1, 0.0, 0.1]", fillcolor="#e4ee7b"] ;
5 -> 6 ;
7 [label="node #7\nCh. 1 Disrupted <= 0.5\ngini = 0.37\nsamples = 0.9%\nvalue = [0.0, 0.778, 0.0, 0.0, 0.111, 0.0, 0.111, 0.0, 0.0]", fillcolor="#e1ec6a"] ;
6 -> 7 ;
8 [label="node #8\nCh. 9 Jammed <= 0.5\ngini = 0.219\nsamples = 0.8%\nvalue = [0.0, 0.875, 0.0, 0.0, 0.0, 0.0, 0.125, 0.0, 0.0]", fillcolor="#dde955"] ;
7 -> 8 ;
9 [label="node #9\ngini = 0.0\nsamples = 0.2%\nvalue = [0.0, 1.0, 0.0, 0.0, 0.0, 0.0, 0.0, 0.0, 0.0]", fillcolor="#d7e539"] ;
8 -> 9 ;
10 [label="node #10\ngini = 0.278\nsamples = 0.6%\nvalue = [0.0, 0.833, 0.0, 0.0, 0.0, 0.0, 0.167, 0.0, 0.0]", fillcolor="#dfea61"] ;
8 -> 10 ;
11 [label="node #11\ngini = 0.0\nsamples = 0.1%\nvalue = [0.0, 0.0, 0.0, 0.0, 1.0, 0.0, 0.0, 0.0, 0.0]", fillcolor="#39d7e5"] ;
7 -> 11 ;
12 [label="node #12\ngini = 0.0\nsamples = 0.1%\nvalue = [0.0, 0.0, 0.0, 0.0, 0.0, 0.0, 0.0, 0.0, 1.0]", fillcolor="#e53964"] ;
6 -> 12 ;
13 [label="node #13\ngini = 0.5\nsamples = 0.2%\nvalue = [0.5, 0.0, 0.0, 0.0, 0.0, 0.0, 0.5, 0.0, 0.0]", fillcolor="#ffffff"] ;
5 -> 13 ;
14 [label="node #14\nCh. 9 Jammed <= 0.5\ngini = 0.064\nsamples = 31.0%\nvalue = [0.003, 0.967, 0.003, 0.0, 0.003, 0.0, 0.007, 0.003\n0.013]", fillcolor="#d8e640"] ;
4 -> 14 ;
15 [label="node #15\nCh. 6 Jammed <= 0.5\ngini = 0.059\nsamples = 30.1%\nvalue = [0.003, 0.97, 0.003, 0.0, 0.003, 0.0, 0.007, 0.003\n0.01]", fillcolor="#d8e63f"] ;
14 -> 15 ;
16 [label="node #16\nCh. 1 Idle <= 0.5\ngini = 0.051\nsamples = 27.3%\nvalue = [0.0, 0.974, 0.004, 0.0, 0.004, 0.0, 0.004, 0.004\n0.011]", fillcolor="#d8e63e"] ;
15 -> 16 ;
17 [label="node #17\ngini = 0.0\nsamples = 4.9%\nvalue = [0.0, 1.0, 0.0, 0.0, 0.0, 0.0, 0.0, 0.0, 0.0]", fillcolor="#d7e539"] ;
16 -> 17 ;
18 [label="node #18\nCh. 2 Successful Tx <= 0.5\ngini = 0.062\nsamples = 22.3%\nvalue = [0.0, 0.968, 0.005, 0.0, 0.005, 0.0, 0.005, 0.005\n0.014]", fillcolor="#d8e63f"] ;
16 -> 18 ;
19 [label="node #19\ngini = 0.0\nsamples = 3.0%\nvalue = [0.0, 1.0, 0.0, 0.0, 0.0, 0.0, 0.0, 0.0, 0.0]", fillcolor="#d7e539"] ;
18 -> 19 ;
20 [label="node #20\nCh. 3 Jammed <= 0.5\ngini = 0.072\nsamples = 19.3%\nvalue = [0.0, 0.963, 0.005, 0.0, 0.005, 0.0, 0.005, 0.005\n0.016]", fillcolor="#d8e640"] ;
18 -> 20 ;
21 [label="node #21\nCh. 4 Disrupted/Jammed <= 0.5\ngini = 0.075\nsamples = 18.4%\nvalue = [0.0, 0.962, 0.005, 0.0, 0.005, 0.0, 0.005, 0.005\n0.016]", fillcolor="#d9e641"] ;
20 -> 21 ;
22 [label="node #22\nCh. 8 Jammed <= 0.5\ngini = 0.079\nsamples = 17.5%\nvalue = [0.0, 0.96, 0.006, 0.0, 0.006, 0.0, 0.006, 0.006, 0.017]", fillcolor="#d9e641"] ;
21 -> 22 ;
23 [label="node #23\ngini = 0.083\nsamples = 16.6%\nvalue = [0.0, 0.957, 0.006, 0.0, 0.006, 0.0, 0.006, 0.006\n0.018]", fillcolor="#d9e642"] ;
22 -> 23 ;
24 [label="node #24\ngini = 0.0\nsamples = 0.9%\nvalue = [0.0, 1.0, 0.0, 0.0, 0.0, 0.0, 0.0, 0.0, 0.0]", fillcolor="#d7e539"] ;
22 -> 24 ;
25 [label="node #25\ngini = 0.0\nsamples = 0.9%\nvalue = [0.0, 1.0, 0.0, 0.0, 0.0, 0.0, 0.0, 0.0, 0.0]", fillcolor="#d7e539"] ;
21 -> 25 ;
26 [label="node #26\ngini = 0.0\nsamples = 0.9%\nvalue = [0.0, 1.0, 0.0, 0.0, 0.0, 0.0, 0.0, 0.0, 0.0]", fillcolor="#d7e539"] ;
20 -> 26 ;
27 [label="node #27\nCh. 5 Disrupted <= 0.5\ngini = 0.135\nsamples = 2.8%\nvalue = [0.036, 0.929, 0.0, 0.0, 0.0, 0.0, 0.036, 0.0, 0.0]", fillcolor="#dae748"] ;
15 -> 27 ;
28 [label="node #28\ngini = 0.08\nsamples = 2.4%\nvalue = [0.0, 0.958, 0.0, 0.0, 0.0, 0.0, 0.042, 0.0, 0.0]", fillcolor="#d9e642"] ;
27 -> 28 ;
29 [label="node #29\ngini = 0.375\nsamples = 0.4%\nvalue = [0.25, 0.75, 0.0, 0.0, 0.0, 0.0, 0.0, 0.0, 0.0]", fillcolor="#e4ee7b"] ;
27 -> 29 ;
30 [label="node #30\nCh. 4 Jammed <= 0.5\ngini = 0.198\nsamples = 0.9%\nvalue = [0.0, 0.889, 0.0, 0.0, 0.0, 0.0, 0.0, 0.0, 0.111]", fillcolor="#dce852"] ;
14 -> 30 ;
31 [label="node #31\ngini = 0.219\nsamples = 0.8%\nvalue = [0.0, 0.875, 0.0, 0.0, 0.0, 0.0, 0.0, 0.0, 0.125]", fillcolor="#dde955"] ;
30 -> 31 ;
32 [label="node #32\ngini = 0.0\nsamples = 0.1%\nvalue = [0.0, 1.0, 0.0, 0.0, 0.0, 0.0, 0.0, 0.0, 0.0]", fillcolor="#d7e539"] ;
30 -> 32 ;
33 [label="node #33\ngini = 0.0\nsamples = 1.0%\nvalue = [1.0, 0.0, 0.0, 0.0, 0.0, 0.0, 0.0, 0.0, 0.0]", fillcolor="#e58139"] ;
3 -> 33 ;
34 [label="node #34\nCh. 1 Idle <= 0.5\ngini = 0.202\nsamples = 3.7%\nvalue = [0.027, 0.027, 0.027, 0.027, 0.892, 0.0, 0.0, 0.0, 0.0]", fillcolor="#4fdbe8"] ;
2 -> 34 ;
35 [label="node #35\nCh. 7 Idle <= 0.5\ngini = 0.157\nsamples = 3.6%\nvalue = [0.0, 0.028, 0.028, 0.028, 0.917, 0.0, 0.0, 0.0, 0.0]", fillcolor="#4adae7"] ;
34 -> 35 ;
36 [label="node #36\nCh. 4 Disrupted/Idle <= 0.5\ngini = 0.5\nsamples = 0.2%\nvalue = [0.0, 0.0, 0.0, 0.5, 0.5, 0.0, 0.0, 0.0, 0.0]", fillcolor="#ffffff"] ;
35 -> 36 ;
37 [label="node #37\ngini = 0.0\nsamples = 0.1%\nvalue = [0.0, 0.0, 0.0, 0.0, 1.0, 0.0, 0.0, 0.0, 0.0]", fillcolor="#39d7e5"] ;
36 -> 37 ;
38 [label="node #38\ngini = 0.0\nsamples = 0.1%\nvalue = [0.0, 0.0, 0.0, 1.0, 0.0, 0.0, 0.0, 0.0, 0.0]", fillcolor="#39e581"] ;
36 -> 38 ;
39 [label="node #39\nCh. 9 Disrupted/Jammed <= 0.5\ngini = 0.112\nsamples = 3.4%\nvalue = [0.0, 0.029, 0.029, 0.0, 0.941, 0.0, 0.0, 0.0, 0.0]", fillcolor="#45d9e7"] ;
35 -> 39 ;
40 [label="node #40\nCh. 1 Disrupted/Successful <= 0.5\ngini = 0.061\nsamples = 3.2%\nvalue = [0.0, 0.0, 0.031, 0.0, 0.969, 0.0, 0.0, 0.0, 0.0]", fillcolor="#3fd8e6"] ;
39 -> 40 ;
41 [label="node #41\ngini = 0.0\nsamples = 0.9%\nvalue = [0.0, 0.0, 0.0, 0.0, 1.0, 0.0, 0.0, 0.0, 0.0]", fillcolor="#39d7e5"] ;
40 -> 41 ;
42 [label="node #42\nCh. 8 Disrupted/Jammed <= 0.5\ngini = 0.083\nsamples = 2.3%\nvalue = [0.0, 0.0, 0.043, 0.0, 0.957, 0.0, 0.0, 0.0, 0.0]", fillcolor="#42d9e6"] ;
40 -> 42 ;
43 [label="node #43\nCh. 3 Jammed <= 0.5\ngini = 0.1\nsamples = 1.9%\nvalue = [0.0, 0.0, 0.053, 0.0, 0.947, 0.0, 0.0, 0.0, 0.0]", fillcolor="#44d9e6"] ;
42 -> 43 ;
44 [label="node #44\nCh. 4 Jammed <= 0.5\ngini = 0.105\nsamples = 1.8%\nvalue = [0.0, 0.0, 0.056, 0.0, 0.944, 0.0, 0.0, 0.0, 0.0]", fillcolor="#45d9e7"] ;
43 -> 44 ;
45 [label="node #45\ngini = 0.111\nsamples = 1.7%\nvalue = [0.0, 0.0, 0.059, 0.0, 0.941, 0.0, 0.0, 0.0, 0.0]", fillcolor="#45dae7"] ;
44 -> 45 ;
46 [label="node #46\ngini = 0.0\nsamples = 0.1%\nvalue = [0.0, 0.0, 0.0, 0.0, 1.0, 0.0, 0.0, 0.0, 0.0]", fillcolor="#39d7e5"] ;
44 -> 46 ;
47 [label="node #47\ngini = 0.0\nsamples = 0.1%\nvalue = [0.0, 0.0, 0.0, 0.0, 1.0, 0.0, 0.0, 0.0, 0.0]", fillcolor="#39d7e5"] ;
43 -> 47 ;
48 [label="node #48\ngini = 0.0\nsamples = 0.4%\nvalue = [0.0, 0.0, 0.0, 0.0, 1.0, 0.0, 0.0, 0.0, 0.0]", fillcolor="#39d7e5"] ;
42 -> 48 ;
49 [label="node #49\nCh. 2 Disrupted/Idle <= 0.5\ngini = 0.5\nsamples = 0.2%\nvalue = [0.0, 0.5, 0.0, 0.0, 0.5, 0.0, 0.0, 0.0, 0.0]", fillcolor="#ffffff"] ;
39 -> 49 ;
50 [label="node #50\ngini = 0.0\nsamples = 0.1%\nvalue = [0.0, 0.0, 0.0, 0.0, 1.0, 0.0, 0.0, 0.0, 0.0]", fillcolor="#39d7e5"] ;
49 -> 50 ;
51 [label="node #51\ngini = 0.0\nsamples = 0.1%\nvalue = [0.0, 1.0, 0.0, 0.0, 0.0, 0.0, 0.0, 0.0, 0.0]", fillcolor="#d7e539"] ;
49 -> 51 ;
52 [label="node #52\ngini = 0.0\nsamples = 0.1%\nvalue = [1.0, 0.0, 0.0, 0.0, 0.0, 0.0, 0.0, 0.0, 0.0]", fillcolor="#e58139"] ;
34 -> 52 ;
53 [label="node #53\nCh. 1 Disrupted/Jammed <= 0.5\ngini = 0.174\nsamples = 34.0%\nvalue = [0.908, 0.018, 0.006, 0.012, 0.036, 0.003, 0.003, 0.012\n0.003]", fillcolor="#e78d4c"] ;
1 -> 53 ;
54 [label="node #54\nCh. 5 Disrupted/Successful <= 0.5\ngini = 0.134\nsamples = 33.2%\nvalue = [0.93, 0.018, 0.006, 0.012, 0.012, 0.003, 0.003, 0.012\n0.003]", fillcolor="#e78a47"] ;
53 -> 54 ;
55 [label="node #55\nCh. 8 Successful Tx <= 0.5\ngini = 0.119\nsamples = 32.8%\nvalue = [0.938, 0.009, 0.006, 0.012, 0.012, 0.003, 0.003, 0.012\n0.003]", fillcolor="#e78945"] ;
54 -> 55 ;
56 [label="node #56\nCh. 9 Jammed <= 0.5\ngini = 0.109\nsamples = 32.4%\nvalue = [0.944, 0.009, 0.006, 0.009, 0.012, 0.003, 0.003, 0.009\n0.003]", fillcolor="#e68844"] ;
55 -> 56 ;
57 [label="node #57\nCh. 1 Idle <= 0.5\ngini = 0.099\nsamples = 27.7%\nvalue = [0.949, 0.011, 0.004, 0.011, 0.007, 0.004, 0.0, 0.011\n0.004]", fillcolor="#e68843"] ;
56 -> 57 ;
58 [label="node #58\nCh. 5 Jammed <= 0.5\ngini = 0.114\nsamples = 23.9%\nvalue = [0.941, 0.013, 0.004, 0.013, 0.008, 0.004, 0.0, 0.013\n0.004]", fillcolor="#e78945"] ;
57 -> 58 ;
59 [label="node #59\nCh. 8 Idle <= 0.5\ngini = 0.127\nsamples = 19.8%\nvalue = [0.934, 0.015, 0.005, 0.015, 0.005, 0.005, 0.0, 0.015\n0.005]", fillcolor="#e78946"] ;
58 -> 59 ;
60 [label="node #60\ngini = 0.219\nsamples = 0.8%\nvalue = [0.875, 0.125, 0.0, 0.0, 0.0, 0.0, 0.0, 0.0, 0.0]", fillcolor="#e99355"] ;
59 -> 60 ;
61 [label="node #61\nCh. 7 Disrupted/Jammed <= 0.5\ngini = 0.123\nsamples = 19.0%\nvalue = [0.936, 0.011, 0.005, 0.016, 0.005, 0.005, 0.0, 0.016\n0.005]", fillcolor="#e78946"] ;
59 -> 61 ;
62 [label="node #62\nCh. 3 Disrupted/Jammed <= 0.5\ngini = 0.129\nsamples = 18.1%\nvalue = [0.933, 0.011, 0.006, 0.017, 0.006, 0.006, 0.0, 0.017\n0.006]", fillcolor="#e78a47"] ;
61 -> 62 ;
63 [label="node #63\ngini = 0.135\nsamples = 17.2%\nvalue = [0.929, 0.012, 0.006, 0.018, 0.006, 0.006, 0.0, 0.018\n0.006]", fillcolor="#e78a47"] ;
62 -> 63 ;
64 [label="node #64\ngini = 0.0\nsamples = 0.9%\nvalue = [1.0, 0.0, 0.0, 0.0, 0.0, 0.0, 0.0, 0.0, 0.0]", fillcolor="#e58139"] ;
62 -> 64 ;
65 [label="node #65\ngini = 0.0\nsamples = 0.9%\nvalue = [1.0, 0.0, 0.0, 0.0, 0.0, 0.0, 0.0, 0.0, 0.0]", fillcolor="#e58139"] ;
61 -> 65 ;
66 [label="node #66\nCh. 8 Idle <= 0.5\ngini = 0.048\nsamples = 4.1%\nvalue = [0.976, 0.0, 0.0, 0.0, 0.024, 0.0, 0.0, 0.0, 0.0]", fillcolor="#e6843e"] ;
58 -> 66 ;
67 [label="node #67\ngini = 0.0\nsamples = 0.9%\nvalue = [1.0, 0.0, 0.0, 0.0, 0.0, 0.0, 0.0, 0.0, 0.0]", fillcolor="#e58139"] ;
66 -> 67 ;
68 [label="node #68\ngini = 0.061\nsamples = 3.2%\nvalue = [0.969, 0.0, 0.0, 0.0, 0.031, 0.0, 0.0, 0.0, 0.0]", fillcolor="#e6853f"] ;
66 -> 68 ;
69 [label="node #69\ngini = 0.0\nsamples = 3.7%\nvalue = [1.0, 0.0, 0.0, 0.0, 0.0, 0.0, 0.0, 0.0, 0.0]", fillcolor="#e58139"] ;
57 -> 69 ;
70 [label="node #70\nCh. 2 Disrupted <= 0.5\ngini = 0.16\nsamples = 4.7%\nvalue = [0.915, 0.0, 0.021, 0.0, 0.043, 0.0, 0.021, 0.0, 0.0]", fillcolor="#e78c4b"] ;
56 -> 70 ;
71 [label="node #71\nCh. 7 Disrupted/Jammed <= 0.5\ngini = 0.135\nsamples = 4.2%\nvalue = [0.929, 0.0, 0.024, 0.0, 0.048, 0.0, 0.0, 0.0, 0.0]", fillcolor="#e78a48"] ;
70 -> 71 ;
72 [label="node #72\nCh. 1 Idle <= 0.5\ngini = 0.169\nsamples = 3.3%\nvalue = [0.909, 0.0, 0.03, 0.0, 0.061, 0.0, 0.0, 0.0, 0.0]", fillcolor="#e88d4c"] ;
71 -> 72 ;
73 [label="node #73\ngini = 0.174\nsamples = 3.2%\nvalue = [0.906, 0.0, 0.031, 0.0, 0.062, 0.0, 0.0, 0.0, 0.0]", fillcolor="#e88e4d"] ;
72 -> 73 ;
74 [label="node #74\ngini = 0.0\nsamples = 0.1%\nvalue = [1.0, 0.0, 0.0, 0.0, 0.0, 0.0, 0.0, 0.0, 0.0]", fillcolor="#e58139"] ;
72 -> 74 ;
75 [label="node #75\ngini = 0.0\nsamples = 0.9%\nvalue = [1.0, 0.0, 0.0, 0.0, 0.0, 0.0, 0.0, 0.0, 0.0]", fillcolor="#e58139"] ;
71 -> 75 ;
76 [label="node #76\nCh. 5 Jammed <= 0.5\ngini = 0.32\nsamples = 0.5%\nvalue = [0.8, 0.0, 0.0, 0.0, 0.0, 0.0, 0.2, 0.0, 0.0]", fillcolor="#eca06a"] ;
70 -> 76 ;
77 [label="node #77\ngini = 0.0\nsamples = 0.4%\nvalue = [1.0, 0.0, 0.0, 0.0, 0.0, 0.0, 0.0, 0.0, 0.0]", fillcolor="#e58139"] ;
76 -> 77 ;
78 [label="node #78\ngini = 0.0\nsamples = 0.1%\nvalue = [0.0, 0.0, 0.0, 0.0, 0.0, 0.0, 1.0, 0.0, 0.0]", fillcolor="#8139e5"] ;
76 -> 78 ;
79 [label="node #79\ngini = 0.625\nsamples = 0.4%\nvalue = [0.5, 0.0, 0.0, 0.25, 0.0, 0.0, 0.0, 0.25, 0.0]", fillcolor="#f6d5bd"] ;
55 -> 79 ;
80 [label="node #80\ngini = 0.375\nsamples = 0.4%\nvalue = [0.25, 0.75, 0.0, 0.0, 0.0, 0.0, 0.0, 0.0, 0.0]", fillcolor="#e4ee7b"] ;
54 -> 80 ;
81 [label="node #81\ngini = 0.0\nsamples = 0.8%\nvalue = [0.0, 0.0, 0.0, 0.0, 1.0, 0.0, 0.0, 0.0, 0.0]", fillcolor="#39d7e5"] ;
53 -> 81 ;
82 [label="node #82\nCh. 3 Disrupted/Idle <= 0.5\ngini = 0.075\nsamples = 29.0%\nvalue = [0.003, 0.01, 0.0, 0.0, 0.962, 0.014, 0.0, 0.007, 0.003]", fillcolor="#41d9e6"] ;
0 -> 82 [labeldistance=2.5, labelangle=-45, headlabel="False"] ;
83 [label="node #83\ngini = 0.198\nsamples = 0.9%\nvalue = [0.0, 0.0, 0.0, 0.0, 0.889, 0.0, 0.0, 0.0, 0.111]", fillcolor="#52dce8"] ;
82 -> 83 ;
84 [label="node #84\nCh. 4 Disrupted/Jammed <= 0.5\ngini = 0.07\nsamples = 28.1%\nvalue = [0.004, 0.011, 0.0, 0.0, 0.964, 0.014, 0.0, 0.007, 0.0]", fillcolor="#40d8e6"] ;
82 -> 84 ;
85 [label="node #85\nCh. 7 Jammed <= 0.5\ngini = 0.064\nsamples = 24.6%\nvalue = [0.0, 0.012, 0.0, 0.0, 0.967, 0.012, 0.0, 0.008, 0.0]", fillcolor="#40d8e6"] ;
84 -> 85 ;
86 [label="node #86\nCh. 2 Disrupted/Idle <= 0.5\ngini = 0.069\nsamples = 22.9%\nvalue = [0.0, 0.013, 0.0, 0.0, 0.965, 0.013, 0.0, 0.009, 0.0]", fillcolor="#40d8e6"] ;
85 -> 86 ;
87 [label="node #87\nCh. 1 Jammed <= 0.5\ngini = 0.061\nsamples = 6.5%\nvalue = [0.0, 0.016, 0.0, 0.0, 0.969, 0.0, 0.0, 0.016, 0.0]", fillcolor="#3fd8e6"] ;
86 -> 87 ;
88 [label="node #88\ngini = 0.0\nsamples = 1.1%\nvalue = [0.0, 0.0, 0.0, 0.0, 1.0, 0.0, 0.0, 0.0, 0.0]", fillcolor="#39d7e5"] ;
87 -> 88 ;
89 [label="node #89\nCh. 6 Disrupted/Idle <= 0.5\ngini = 0.073\nsamples = 5.4%\nvalue = [0.0, 0.019, 0.0, 0.0, 0.962, 0.0, 0.0, 0.019, 0.0]", fillcolor="#41d9e6"] ;
87 -> 89 ;
90 [label="node #90\ngini = 0.0\nsamples = 0.9%\nvalue = [0.0, 0.0, 0.0, 0.0, 1.0, 0.0, 0.0, 0.0, 0.0]", fillcolor="#39d7e5"] ;
89 -> 90 ;
91 [label="node #91\ngini = 0.088\nsamples = 4.4%\nvalue = [0.0, 0.023, 0.0, 0.0, 0.955, 0.0, 0.0, 0.023, 0.0]", fillcolor="#42d9e6"] ;
89 -> 91 ;
92 [label="node #92\nCh. 8 Disrupted/Idle <= 0.5\ngini = 0.072\nsamples = 16.5%\nvalue = [0.0, 0.012, 0.0, 0.0, 0.963, 0.018, 0.0, 0.006, 0.0]", fillcolor="#40d8e6"] ;
86 -> 92 ;
93 [label="node #93\ngini = 0.0\nsamples = 0.9%\nvalue = [0.0, 0.0, 0.0, 0.0, 1.0, 0.0, 0.0, 0.0, 0.0]", fillcolor="#39d7e5"] ;
92 -> 93 ;
94 [label="node #94\nCh. 9 Disrupted/Idle <= 0.5\ngini = 0.076\nsamples = 15.6%\nvalue = [0.0, 0.013, 0.0, 0.0, 0.961, 0.019, 0.0, 0.006, 0.0]", fillcolor="#41d9e6"] ;
92 -> 94 ;
95 [label="node #95\ngini = 0.0\nsamples = 0.8%\nvalue = [0.0, 0.0, 0.0, 0.0, 1.0, 0.0, 0.0, 0.0, 0.0]", fillcolor="#39d7e5"] ;
94 -> 95 ;
96 [label="node #96\ngini = 0.08\nsamples = 14.7%\nvalue = [0.0, 0.014, 0.0, 0.0, 0.959, 0.021, 0.0, 0.007, 0.0]", fillcolor="#41d9e6"] ;
94 -> 96 ;
97 [label="node #97\ngini = 0.0\nsamples = 1.7%\nvalue = [0.0, 0.0, 0.0, 0.0, 1.0, 0.0, 0.0, 0.0, 0.0]", fillcolor="#39d7e5"] ;
85 -> 97 ;
98 [label="node #98\nCh. 8 Disrupted/Jammed <= 0.5\ngini = 0.112\nsamples = 3.4%\nvalue = [0.029, 0.0, 0.0, 0.0, 0.941, 0.029, 0.0, 0.0, 0.0]", fillcolor="#45d9e7"] ;
84 -> 98 ;
99 [label="node #99\ngini = 0.111\nsamples = 1.7%\nvalue = [0.0, 0.0, 0.0, 0.0, 0.941, 0.059, 0.0, 0.0, 0.0]", fillcolor="#45dae7"] ;
98 -> 99 ;
100 [label="node #100\ngini = 0.111\nsamples = 1.7%\nvalue = [0.059, 0.0, 0.0, 0.0, 0.941, 0.0, 0.0, 0.0, 0.0]", fillcolor="#45dae7"] ;
98 -> 100 ;
}